svm_type c_svc
kernel_type rbf
gamma 0.5
nr_class 2
total_sv 29
rho 0.09083699100204772
label 1 -1
nr_sv 13 16
SV
0.3421293611950663 1:8.127113 2:1.274372 
0.3009919577437267 1:7.108772 2:-0.986906 
0.06613762131369279 1:8.197181 2:1.545132 
0.15152762648819373 1:8.015003 2:0.885325 
0.4142532889859669 1:7.916831 2:-1.781735 
0.4422981680719187 1:7.270337 2:-2.507834 
0.8980580396457609 1:8.804461 2:3.044301 
0.8008506453140161 1:5.286862 2:-2.358286 
0.9366058443539452 1:6.080573 2:0.418886 
0.7531156270673451 1:6.016004 2:-3.753712 
0.782279155225512 1:9.205805 2:-0.58648 
0.10717171234237313 1:7.556201 2:0.241185 
0.7469568147496474 1:9.854303 2:1.365116 
-0.2061500945556887 1:3.018896 2:2.556416 
-0.44279351211500584 1:3.634009 2:1.730537 
-0.7089286388442323 1:0.887835 2:-2.797792 
-0.1273819763147443 1:1.696414 2:-1.212496 
-0.5692778002899782 1:4.658191 2:3.507396 
-0.4136224796894207 1:1.208047 2:0.2131 
-0.44978314935984987 1:-0.232542 2:-0.54769 
-0.5808936125457922 1:3.457096 2:-0.082216 
-0.4697920690703394 1:2.074915 2:1.41055 
-0.5841692781335643 1:-0.743036 2:-1.736103 
-0.5263117922723894 1:3.536555 2:3.96496 
-0.6578864128242619 1:2.893743 2:-1.643468 
-0.07914593312978442 1:0.870296 2:-0.109952 
-0.9045733736912425 1:-0.236713 2:-5.766721 
-0.016686476574032653 1:1.336267 2:-1.632889 
-0.004979263086838772 1:1.966279 2:-1.840439 
